{"dnn_layers": [{"n": 10, "activation": "relu", "w": [[0.5742928108176033, -0.21628855426316543, -0.18673691382833538, -0.3793516943635073, 0.3059678015930271, -0.8137168098636488, 0.6168841151857682, -0.2691272807544617], [-16.226344870166074, -11.058510995881647, -1397.015054981444, -6.1592337201293175, -0.2226089754083225, -5.566647706452319, -3.447307023289606, -0.3888702868428084], [-5.605176389020723, -4.032838162763094, -474.1970041100108, -1.6367498153222937, -0.4259837640600247, -1.4380851613145595, -0.9869993019063383, 0.17765857727268108], [0.31850067529855497, -0.24173430285416586, -0.043448255902890115, -0.33084445629584336, -0.09471273885129881, 0.18750897348496387, -0.24453900391277553, -0.1402735546497703], [-0.2429522380504193, -0.2988253203004353, -0.2373213454799736, -0.004477611888281485, -0.39502886210495525, 0.08287846477152121, 0.5868286874312921, 0.2623522289420567], [-0.06782410997378245, -0.31382422984098907, -0.2641603480654939, 0.5983730626185462, 0.017963253969496638, -0.22521197063774953, 0.06749881692094079, 0.7425523246130336], [-3.724284401169238, -2.310849635251524, -322.0758653924465, -1.3765509529960709, -0.4289814192338915, -1.3755231294204848, -0.9609950722199396, 0.2074026182431122], [-5.706680892623817, -3.701515645697749, -513.3784097941888, -1.6824563023625023, -0.30662796913883295, -1.552445177895027, -1.232536033174057, -0.10539173256212678], [-6.474821954324584, -4.489976199843782, -568.1823071812294, -1.6721970592317938, 0.7285269264219011, -2.7032694621214506, -2.0761836038668076, -0.17835561628327956], [-10.443995288672845, -6.740472421355152, -898.0317703210542, -4.205176350845245, -0.17806387196860313, -3.1974870123097827, -2.391719577934691, 0.26941163646929883]], "b": [0.0, -5.430863987187182, -1.8428061102208617, 0.0, 0.0, 0.0, -1.2520118254323256, -1.9954009621440947, -2.209533447758537, -3.490220254528833]}, {"n": 8, "activation": "relu", "w": [[-0.07030633186034686, -929.181123543896, -256.0959153265972, 0.12966971634819144, 0.06270787749745259, 0.037633838200381825, -217.20277368288436, -85.50093537988882, -493.6879757457751, -397.8137524997568], [0.37913112279889716, -0.004012508747128232, -0.14035966755061782, -0.20198428983627337, 0.13392067350643821, 0.0244570770374545, -0.12279811451647153, -0.013696604758326264, -0.2188972597600093, 0.17773957885711683], [-0.1413944671645912, -1092.8969565031523, -301.1856347827197, 0.1877060103588314, -0.3462415269640623, 0.05356342840863921, -255.11729601291648, -100.5253831341325, -581.2883713805262, -468.12594410546654], [-0.43421782266065856, -0.31757373376417486, 0.19863089665874364, -0.2718028058251597, 0.1108523717191368, -0.4149804515165684, -0.12065082910062826, -0.5536822681020668, 0.09300768882514315, 0.004617580360164325], [-0.007784564962732461, -0.8915169968892539, 0.17876436724628117, 0.6220521916946388, -0.5875454542937958, 0.39090938978046574, 0.3694245879622217, -0.17705702782124555, -0.6151727118807521, -0.17122092836896124], [-0.057212022953264996, -0.19097647097854803, -0.3889785363127998, 0.17409524246106248, 0.2507075440924861, -0.19717772968948935, 0.16462069211394045, -0.36187252120113034, 0.25357072276463183, 0.01472587275010696], [-0.05899854217653191, -966.1438645067877, -266.03267361439964, 0.23730099646754343, 0.16743163670343772, 0.04354494601528887, -225.61454980892006, -88.61823935880616, -513.4151315719747, -413.6439730555385], [-0.0980675344939658, -0.7699633067570331, 0.3285051831293336, 0.6915836880869624, 0.13957169198895744, -0.03167186567613638, -0.043147616546982105, -0.03764823983497727, 0.00550533829438545, -0.3548134760206809]], "b": [-0.4125450192307845, -0.00021642098538680987, -0.4813723389355117, -0.0026101138029945748, -0.002235982043956968, 0.0, -0.4274653291717439, 0.0]}, {"n": 7, "activation": "relu", "w": [[-224.80253559570357, -0.2690539317391102, -384.51393614683235, 0.07794532220933491, 0.28714639218725857, -0.06176689447431953, -280.10218543279854, 0.07549563482375503], [0.41102072952655283, -0.6901319126531866, -0.7538007993930769, 0.2211982084288036, 0.867487194710042, -0.08790566868070585, -0.40025891373096834, -0.08001416778023353], [-572.6687960480148, 0.08628586435902276, -980.9145304290056, 0.29864122242523894, -0.19763406928587735, 0.11085585968263843, -715.3483342212123, 0.4572243955722599], [-258.81512570861537, -0.12700119927199904, -442.961938038105, 0.17734862756846315, 0.22179562157632726, -0.025849244305291605, -322.7103239647784, 0.13063540267415596], [-574.4458490563525, 0.5208171277908291, -983.8301391386062, -0.32113503923952, 0.3848423122919473, 0.14859219810543065, -717.5373207335704, 0.3692660438620925], [-0.13640451683792454, 0.29132998027104906, -0.13988417051537533, 0.7477700348658157, -0.47091602780353453, -0.6224974103077799, -0.5595303563734337, -0.31485894629261935], [-0.39566704362593474, 0.6915783286723964, -0.1154350045725441, -0.47470757780189277, 0.39399387985992085, -0.2073675272344959, -0.43729370494295017, 0.3096558224839868]], "b": [-0.013222136751894634, -0.0029673538195856856, -0.03592633321873032, -0.018043718433800468, -0.04259714811171207, 470.85535297926776, 0.0]}, {"n": 1, "activation": "linear", "w": [[-587.9323677948996, 0.8484030487755847, -1338.9325847669134, -644.179469435068, -974.832905221919, 470.85541859273974, 0.5891731146842486]], "b": [8.249014285714047]}]}